digraph Tree {
node [shape=box] ;
0 [label="X[18] <= 0.126\nentropy = 0.998\nsamples = 17\nvalue = [9, 8]\nclass = unripe"] ;
1 [label="entropy = 0.0\nsamples = 5\nvalue = [5, 0]\nclass = unripe"] ;
0 -> 1 [labeldistance=2.5, labelangle=45, headlabel="True"] ;
2 [label="X[3] <= 0.5\nentropy = 0.918\nsamples = 12\nvalue = [4, 8]\nclass = ripe"] ;
0 -> 2 [labeldistance=2.5, labelangle=-45, headlabel="False"] ;
3 [label="X[13] <= 0.5\nentropy = 0.985\nsamples = 7\nvalue = [4, 3]\nclass = unripe"] ;
2 -> 3 ;
4 [label="entropy = 0.0\nsamples = 3\nvalue = [3, 0]\nclass = unripe"] ;
3 -> 4 ;
5 [label="X[17] <= 0.382\nentropy = 0.811\nsamples = 4\nvalue = [1, 3]\nclass = ripe"] ;
3 -> 5 ;
6 [label="entropy = 0.0\nsamples = 1\nvalue = [1, 0]\nclass = unripe"] ;
5 -> 6 ;
7 [label="entropy = 0.0\nsamples = 3\nvalue = [0, 3]\nclass = ripe"] ;
5 -> 7 ;
8 [label="entropy = 0.0\nsamples = 5\nvalue = [0, 5]\nclass = ripe"] ;
2 -> 8 ;
}